[0.7836954934268836,0.249855475711239,1.413315457932668,0.8413361913040105,-0.24422353516337214,0.5219472141570938,1.0202626621608961,1.0966010683089276,0.6718411251472345,-0.8114413726057972,0.9872388910167866,-0.7271585490468144,2.3381654046755327,0.603469834630395,-0.4985707463540314,1.8883938666071667,1.581698202295187,-0.09153588139834845,0.9897883795278131,0.03928424417584209,0.7070640634884753,-0.15382118170261405,-0.9648879298897031,0.3228259993837055,-0.37215677138219583,-0.4607523771062526,0.2696977957957696,-0.438137385435557,-2.408548929432441,0.11890718808405776,0.48659933626840957,3.4133155965052304,-0.8035809223334893,0.6846192640560402,0.3748672327618361,0.5454036479777096,-0.3222721199895724,0.2600153150168243,-0.018532157179752318,-0.9652521977172674,0.09381913190143054,-1.3573732159358205,0.24021035951095848,-0.5040623944420356,-0.6701289466175311,0.670575832037418,0.3756547718996952,-1.698064951020717,-0.5277527431935563,0.2943855229262997,0.8252572456957163,0.858520181790257,-0.9574215400978288,-0.17713486984175075,0.32474607759608176]